{
    "weights_input_hidden": [
        [
            0.025128715780955317,
            0.5063497255609816,
            0.6556597073240371,
            -0.12085338326685269,
            -0.551042277555276,
            0.13596593709513805,
            0.37892770794461367,
            -0.8381149366205342,
            0.5408500532499138,
            0.23891375261314746,
            -0.6299697043222886,
            -0.5642808981017046,
            -0.025339731048480918,
            -0.8491216704483086,
            -0.23268650541317784,
            -0.19298312008030408,
            0.49811906327121225,
            0.37314055687112907,
            -0.253962996056395,
            -0.46176056683650973,
            -0.5507897745758624,
            -0.5919769307171218,
            -0.6558181528498788,
            0.3019231515535326,
            0.5759230954970226,
            -0.24974472938525827,
            1.0255653506399287,
            0.7146975200129921,
            1.895550391086547,
            0.9377225181857427,
            -0.5438214153041505,
            0.6113941109850052,
            -0.09638146920809784,
            0.8946361850365336,
            0.7489477239816884,
            0.5275480690777522,
            -0.003504339245970513,
            -0.454325960248669,
            0.3509185264855426,
            -0.6314160354986134,
            0.8975753500898964,
            -0.6644576205617004,
            -0.48660486400047387,
            1.3832989462217806,
            -2.27112959122796,
            0.08985629174575574,
            0.7871635658884114,
            0.7236086872277463,
            0.3588035118476919,
            -0.44326257486056553,
            0.29848046824306873,
            0.3873754526391992,
            -0.4093663635554332,
            -0.2858474688159585,
            0.7457304964085572,
            0.758187151969479,
            -0.0915416518183329,
            0.11309455013178692,
            0.8023283098622396,
            0.17272546757142057,
            0.3424974485177849,
            0.7834467395887146,
            0.6130659948391154,
            0.6901331183385074
        ],
        [
            0.7073349010385792,
            0.3877610026858264,
            0.26870607342369396,
            0.3901000663253581,
            0.1655786352686243,
            -0.2101599419191141,
            0.6286950406623775,
            1.9485663513416487,
            -0.024931372171032022,
            0.7291897275144865,
            0.466012527076932,
            -0.4165156640217559,
            -0.4666161165766495,
            0.9496468415933964,
            -0.26411260835023087,
            -0.49431594880076496,
            -0.9411659667557113,
            -0.20629612888461674,
            -0.00436887715854534,
            -0.7598311992552739,
            0.0006920073676494273,
            -0.6530429500863593,
            -0.24825812225838237,
            -0.11642568149237778,
            0.7119477273300783,
            -0.49703901437588377,
            -0.28775514918253164,
            -0.785765278572413,
            2.2930138611425055,
            -0.31554745472936385,
            -0.4111582449459545,
            0.36103478975434783,
            -0.48742870444102576,
            -0.03095611143618654,
            -0.21753655180204448,
            0.4980177603218576,
            -1.3245108748039862,
            -0.36214594848140313,
            0.22269646722696654,
            0.8347569459337874,
            0.07793473203259346,
            -0.7441273492373564,
            -1.2290748509547622,
            -0.5290671633562469,
            0.20308343392081232,
            -0.23296808989535905,
            -0.11370297388060639,
            0.24055371183149646,
            -0.858387611776239,
            0.42767416263036945,
            -0.21880689663617725,
            0.8544549915823014,
            0.03454989134520237,
            0.42319946171968026,
            0.12422128591161409,
            0.05398329561244109,
            1.0910788430257992,
            -0.8689452395478976,
            0.0174059667780775,
            0.26138648811215487,
            0.5519203283063856,
            0.015619938641314444,
            -0.2729715081874768,
            -0.13875692720215765
        ],
        [
            1.2532980298910912,
            -1.1864672099387292,
            -0.4695479472994444,
            -1.0060402770678134,
            0.20684148744470604,
            -1.2460738159661846,
            -0.5216109942053138,
            -1.1300736290654827,
            -0.5285297465529818,
            -0.4832474395094053,
            -1.3977249521869988,
            -0.897813003796292,
            -0.45838194700193224,
            -0.43529647772141555,
            -1.3443495863555706,
            -0.1420525375090077,
            -1.3507212230782473,
            -1.1444895421993748,
            -0.9807502853804313,
            0.741114927887632,
            -0.8650705951060654,
            0.06649786519197343,
            -1.052846500601431,
            -0.5762785566891722,
            0.2050911166511703,
            1.1920371305879065,
            0.5965648250830534,
            0.6259948329884124,
            -2.204515837142429,
            0.5685111847111649,
            1.2401983055217487,
            -0.5209386030388182,
            -1.0679569973912568,
            -0.47784810472906286,
            -0.7364700793077982,
            -0.5439382784451587,
            1.0451990753598361,
            -0.714939836587659,
            -0.09247722231873289,
            -0.6081681233550933,
            0.9000612990938996,
            -0.332329918864191,
            -0.8000567452063467,
            -0.846408121740813,
            0.6615722117656586,
            -0.7703352220706091,
            -0.28088966887579586,
            -0.44788311697989464,
            -0.3394125534028933,
            0.9110431368662113,
            -0.49456798842040084,
            1.1279311286533982,
            -1.0761232957634066,
            -1.4645579984280035,
            -0.5630574554921906,
            -0.3114536626706843,
            -0.1826734779115098,
            -1.5213366033907854,
            -0.35578017013063207,
            -1.169107857718681,
            0.7917076135847486,
            -0.3047025323579193,
            0.3818781111413494,
            -0.2972547901000356
        ],
        [
            -0.8654300107472106,
            0.6690948724171675,
            0.3494677386156719,
            0.10144917408280935,
            0.11996928340835149,
            -0.0116716683595651,
            0.1236657128094921,
            -0.3717448465233557,
            0.2858370385773081,
            -0.06111161642085688,
            -0.06230873065416085,
            -0.5405624231542058,
            -0.26300594064543253,
            -1.437815366678052,
            -0.3182507895859909,
            -0.40784592653594276,
            -0.47512325550104956,
            0.17929769397159748,
            -0.22552795468896855,
            -0.8612389394789605,
            -0.44361763610034244,
            -0.8115891698186076,
            -0.5860312775810496,
            0.19036096671003047,
            0.08894620564060579,
            -0.2245162178067364,
            0.3324573547334839,
            -2.8536691845652524,
            0.832063790127809,
            0.26045700482430084,
            1.0672767135780648,
            0.38878646597970085,
            -0.3317374101379574,
            0.628782495044645,
            0.7580849481182748,
            0.331510449280244,
            -0.5466684938497873,
            -0.4522472176480536,
            -0.5473153295549492,
            1.0205580066681985,
            -1.0268022079934087,
            -0.4637865324473244,
            1.5838219881687237,
            0.42861359241286745,
            -0.5058004463259529,
            -0.3504238336367437,
            0.3447949641787326,
            0.38944438512462975,
            -0.0027330680232542925,
            0.8549418224507561,
            0.07741581474302535,
            -0.8257744253424164,
            -0.15825844217805163,
            0.13286158581372515,
            0.37339465902333696,
            0.4183440827448322,
            1.2722918245356347,
            -0.7176415215768396,
            0.40363660011465,
            0.3954972078419529,
            0.48825201059088214,
            0.4206397587561023,
            0.9096278173257694,
            0.31932939511367164
        ],
        [
            -0.6607842505897508,
            0.1108877678287366,
            -0.007329856984711881,
            -0.5605102484267446,
            -1.2328990887984037,
            -0.3452093670369174,
            0.2425625677411875,
            -1.9551325002590365,
            -0.1989890423220844,
            0.3300182559430969,
            0.6866105174701952,
            -0.4193287598373819,
            -0.42725006291528456,
            0.42077843001779397,
            -0.49821040756860396,
            -0.7174672115265264,
            -0.08170332909274602,
            -0.21738876089639605,
            -0.7473745058231372,
            -1.237473581825489,
            -1.0704489470873786,
            -0.5562860855073347,
            -1.086179579646113,
            -0.34470387948453646,
            -0.06600005825239638,
            -0.17001703936692342,
            -0.4577425307920179,
            0.5858759180373277,
            0.8867894041244436,
            -0.7829908086561305,
            -0.20923895443243679,
            0.05317266651854487,
            0.33308605248596357,
            0.1717463110642864,
            0.5866454758639451,
            0.16175307497410488,
            0.2298071410227909,
            -0.38046092201621967,
            -0.5159367956721094,
            -0.1495857593451307,
            0.7005026212365543,
            1.1167143782660534,
            -0.20874139978685075,
            -0.24180691570867183,
            0.03682966531073934,
            -0.5921279593425479,
            -0.23760370835429764,
            0.02304615952364492,
            0.8194480290307439,
            -0.6635493317884564,
            -0.3907410987459153,
            -0.4246489092115531,
            -0.8678163575727309,
            -0.32833015549376615,
            0.1452398269235978,
            -0.22838681709352598,
            -0.5322920377350607,
            -0.18493227362019665,
            -0.12857950401556298,
            -0.4492810263669288,
            1.673953552052991,
            -0.21957286535688444,
            -0.09700906913425746,
            -0.31823955773907553
        ]
    ],
    "bias_hidden": [
        -4.501387936766766,
        -6.367358071602447,
        -5.518403042472797,
        -9.284345358031786,
        -4.826950222260677,
        -9.583741611769375,
        -5.368731983815098,
        -3.789176029575995,
        -5.389269034365674,
        -5.354738788329362,
        -4.172647165077848,
        -5.377027277297373,
        -5.2291262687089315,
        -4.875650559232947,
        -9.32788128831667,
        -5.247642056181112,
        -8.913091808940763,
        -7.344884714468188,
        -9.77666648192068,
        -5.178704566716194,
        -10.047082974763992,
        -4.93175401026463,
        -10.291762606033865,
        -5.3874112309436315,
        -5.349264635158176,
        -4.8150047260564035,
        -4.435643300692618,
        -3.368813746480257,
        -7.673451097394652,
        -5.181371982177777,
        -5.220318369244108,
        -5.528084930696032,
        -5.135606187016879,
        -4.957442917591387,
        -4.358835692430594,
        -5.342059386907307,
        -4.3526409260034,
        -5.129772384652249,
        -9.455152105159351,
        -4.514557677263529,
        -5.882941678253671,
        -4.834831378806808,
        -2.97974891126211,
        -5.487783765860625,
        -3.5859828700350156,
        -9.823851709546481,
        -5.508923301238847,
        -5.473506657182108,
        -4.778150759188476,
        -5.20452270216589,
        -5.476404707016797,
        -5.711456481751753,
        -9.853870230432612,
        -9.458977325187192,
        -5.347861919977201,
        -5.456053035307065,
        -5.139531498353002,
        -10.301744342449984,
        -5.479483432888859,
        -8.338742243233618,
        -2.9750448535076606,
        -5.418554607471754,
        -4.499068262538382,
        -5.423519801109164
    ],
    "weights_hidden_output": [
        [
            0.36313778570022986,
            3.3566216663799313,
            4.081573952805441,
            -2.387349071973416,
            -2.087984492206961
        ],
        [
            3.514006771844136,
            2.9176456855784596,
            -3.679217671258319,
            2.086672430493391,
            -3.646933688618309
        ],
        [
            4.653364336605081,
            3.3309510452419833,
            -4.113441348103297,
            0.9774299452889147,
            -2.8148842187975354
        ],
        [
            3.2864326610509176,
            3.0203796376408363,
            -3.214993388287433,
            2.186676737735909,
            -3.211194910592584
        ],
        [
            -3.2577522445653586,
            0.16199896604940436,
            -0.7689021832098267,
            1.9210239315487476,
            -5.7352877828456075
        ],
        [
            2.943161482030861,
            1.8999026119424713,
            -2.883173927256778,
            1.9544638200659952,
            -2.70493495259185
        ],
        [
            4.548263442243327,
            5.173676118739867,
            -2.8870089019183625,
            0.942853771916601,
            -0.5235993617675188
        ],
        [
            0.45500018181843005,
            0.4289043090036408,
            -0.5583394100746265,
            -0.7853019364194671,
            -0.8660811012799522
        ],
        [
            2.892245509792225,
            0.85945053132728,
            -3.9194439968325616,
            0.5173282999854538,
            -3.5386417283039147
        ],
        [
            4.583408848548975,
            5.667553980730935,
            -1.7782894729702223,
            0.2456678796743665,
            1.6463770164289842
        ],
        [
            -2.0916763450758347,
            1.9241517416543408,
            -6.789654895959742,
            -0.5943090234631497,
            5.378074022638217
        ],
        [
            -0.833146061811556,
            -1.971770107552371,
            -3.5706980501640486,
            1.4451566878595392,
            -3.727266533353411
        ],
        [
            0.4066754352008709,
            -2.919368114860943,
            -2.309558930587779,
            -1.2324735859209763,
            -3.079847348702764
        ],
        [
            -1.6654060087632974,
            3.8719927225583546,
            -1.1760888322426495,
            -4.980423905122374,
            1.4035634641308532
        ],
        [
            2.1709208578674155,
            1.2306814800384216,
            -2.4070937110330592,
            1.4363434949381146,
            -2.286041428227664
        ],
        [
            -0.020771321799169167,
            -2.8690154049686285,
            -2.5610625192865326,
            -0.22014041420367944,
            -4.089405505418087
        ],
        [
            2.733410302797269,
            1.3003020313951588,
            -2.877101930502091,
            1.6693377742408153,
            -2.871911179750295
        ],
        [
            3.134715945826599,
            1.605099297110238,
            -3.3653897270692084,
            1.512482290194215,
            -3.396146248070813
        ],
        [
            2.690344601587013,
            2.4194670872307977,
            -2.9128415036431012,
            1.8997809232554912,
            -3.0768683843087055
        ],
        [
            -0.920223846740468,
            -2.8704752394775,
            0.0740186581844672,
            -1.430587193318621,
            -5.226474510344655
        ],
        [
            2.620787698941481,
            2.609288801075813,
            -2.901901206746841,
            2.361284013497267,
            -2.985499974161319
        ],
        [
            -3.392234969110456,
            -3.115734355401225,
            -1.3468320212461187,
            -4.345085115042069,
            -2.2730490142058963
        ],
        [
            2.0006495621974896,
            1.8858539361743358,
            -2.228319153223072,
            2.057008390578329,
            -2.5743303561357735
        ],
        [
            2.1622106413737345,
            0.19793199332965628,
            -4.248377373254168,
            1.4419314984148828,
            -4.462368977426868
        ],
        [
            4.9224150215415765,
            6.418076792950799,
            0.13991981555158184,
            1.2180596776631207,
            1.5078031607962736
        ],
        [
            -0.4065391031982534,
            -2.5591893644620214,
            6.703484624836217,
            -0.8147358406987724,
            -0.49588153269510615
        ],
        [
            5.460778318805056,
            -2.060244647629216,
            3.562252842103783,
            0.16812753964462707,
            -3.2257235142707654
        ],
        [
            1.0775275739662655,
            -0.21562718661162736,
            -0.43844675749275414,
            -1.4993809511101386,
            -0.08142539928140197
        ],
        [
            -0.47098847111853887,
            -0.04099454316088358,
            0.9762810109737681,
            -0.6686742580805722,
            0.5928238070496773
        ],
        [
            4.571930115465943,
            -1.1277036418320403,
            -0.7374276809700853,
            1.0278139348531268,
            -5.2999989802751655
        ],
        [
            -1.0112830089177434,
            -0.8271310840570588,
            1.3474772283182992,
            4.4404123483303355,
            0.15173063599409917
        ],
        [
            5.08495256363942,
            4.285525391191494,
            -4.295023706336621,
            2.0155426914453853,
            -2.5463183394337974
        ],
        [
            -0.8645620650025266,
            -3.3493544779220454,
            -3.7103167750202055,
            -1.8589679889199175,
            -0.09243891008492328
        ],
        [
            5.985497854492573,
            0.043847846612046104,
            -3.2371581332368256,
            3.0507290642547247,
            2.347214620734999
        ],
        [
            3.575759283604123,
            -1.4098122904049413,
            -3.236477315689122,
            3.7085140707613493,
            4.347749008371339
        ],
        [
            4.796421989267696,
            4.387929846062652,
            -3.2534315535018843,
            1.861497096138346,
            -0.9305940361225675
        ],
        [
            0.04360970534845977,
            -3.8467048724636035,
            1.9971078364873402,
            -0.0957212887115423,
            1.4322343759889098
        ],
        [
            -1.758180736887998,
            -2.3376620976727986,
            -3.7877046867874307,
            -1.1322315206991833,
            -2.7567515209821343
        ],
        [
            3.4909789975773196,
            3.3860687328449948,
            -3.0827459260744767,
            2.5438271593924107,
            -3.16580816466044
        ],
        [
            -4.1542220915807455,
            3.968059698585921,
            -2.745343578275021,
            5.211548987631408,
            -1.601567662543625
        ],
        [
            3.198672547107258,
            0.08381709203128782,
            1.957580427952607,
            -2.0136671301826903,
            3.868071030398711
        ],
        [
            -4.514673184341522,
            -3.698878984143737,
            -0.8940910111012428,
            -0.42262563852134416,
            6.144980181692791
        ],
        [
            -0.6272549453582873,
            -1.3410948758441634,
            -0.5247480456464304,
            0.8940402542327989,
            -0.5328522435079398
        ],
        [
            -0.26990827177222715,
            -1.8446490179122843,
            0.25864597365429265,
            -3.9797479917725287,
            -0.12369141483632953
        ],
        [
            -1.2835400594549173,
            0.24156742818990073,
            0.4261590053234801,
            0.12896384505271977,
            0.4168834794317292
        ],
        [
            2.794786154917344,
            2.165017170676644,
            -2.764854135124967,
            1.779343310084397,
            -2.6839665860709676
        ],
        [
            4.459222568677572,
            0.16772475421759767,
            -3.779118563663763,
            -0.14557278240491406,
            -3.0972449370571282
        ],
        [
            5.451482559174106,
            2.839569635740779,
            -3.867932064115964,
            1.2370404658194705,
            -1.7281025984210623
        ],
        [
            3.212509001320724,
            -7.306610974722812,
            -1.7475542539404556,
            1.9035221752858176,
            6.251146168928975
        ],
        [
            -1.872637658694419,
            2.4795100261929397,
            4.836063187125252,
            2.9826104603544312,
            -2.39125804599529
        ],
        [
            2.082434099676901,
            -0.8142816877737046,
            -4.253700977703717,
            0.0970332520143418,
            -4.367103018444581
        ],
        [
            3.481445956785274,
            7.843909172465819,
            0.3074314173250177,
            1.0102102257452374,
            -0.6098277977481984
        ],
        [
            2.6011525010407506,
            2.457071198217621,
            -3.0741854800295347,
            2.589123679667202,
            -2.9176053850595363
        ],
        [
            3.1915196608974896,
            2.7950562013983506,
            -3.1053404871911803,
            1.9930640012200074,
            -3.1341470601264496
        ],
        [
            5.384373665770337,
            1.2219638157211008,
            -4.0449974306840195,
            0.683519006342298,
            0.4095876140182585
        ],
        [
            4.1120760524141895,
            1.9355809375584738,
            -3.8810308315919717,
            1.2575149795209364,
            -3.79422260040931
        ],
        [
            0.5242030259399777,
            5.739794477278135,
            1.3792671598591955,
            5.23828931688916,
            -0.5686144639491534
        ],
        [
            2.100340234479145,
            1.295987438277161,
            -2.4742643373212836,
            1.3332863057854185,
            -1.980215082402456
        ],
        [
            4.857366447892767,
            1.2635792501404925,
            -3.9924864630749948,
            0.6598275388286798,
            -2.5194658878497327
        ],
        [
            3.2428665964607406,
            2.3003601337643773,
            -3.3775135562488208,
            1.9354458702598012,
            -3.3433631700713904
        ],
        [
            0.028361565495289277,
            0.9146265588971997,
            1.1132318674004056,
            0.465683257277815,
            1.8342707039863848
        ],
        [
            4.263198404831231,
            1.4573940727468513,
            -3.626083635731857,
            1.1205954175557087,
            -3.424587987526921
        ],
        [
            5.32326514240455,
            -3.375895896430749,
            4.090352102364593,
            5.237197703903624,
            -0.5490437633365426
        ],
        [
            3.5274516053120566,
            0.06307600520442481,
            -3.7973542283178032,
            0.5344614539798319,
            -3.6409350350954424
        ]
    ],
    "bias_output": [
        -0.3824938415833362,
        0.1785160624816445,
        0.4967609428754295,
        0.006631983111698658,
        0.32872328359513414
    ],
    "input_size": 5,
    "output_size": 5,
    "hidden_size": 64,
    "learning_rate": 0.05,
    "data_stats": {
        "X_mean": [
            -1.4837400304261603,
            -1.1670314195165539,
            -2.1102208530290705,
            -2.794809442981264,
            -3.1555037181849293
        ],
        "X_std": [
            1.7195446977111264,
            0.9249756115502941,
            2.842482747804878,
            2.8372519853892646,
            1.4353714566274807
        ],
        "y_mean": [
            -1.4837873582710004,
            -1.1671898015300466,
            -2.1106486133021716,
            -2.795473666416957,
            -3.1558665281754505
        ],
        "y_std": [
            1.7195069114211328,
            0.9248447926497763,
            2.842440976263623,
            2.837288836111881,
            1.434888663026675
        ]
    }
}